digraph Tree {
node [shape=box] ;
0 [label="Vowel/Consonant End <= 0.5\ngini = 0.461\nsamples = 75111\nvalue = [48009, 27102]"] ;
1 [label="Short/Long Name <= 0.5\ngini = 0.481\nsamples = 34854\nvalue = [14006, 20848]"] ;
0 -> 1 [labeldistance=2.5, labelangle=45, headlabel="True"] ;
2 [label="gini = 0.499\nsamples = 15293\nvalue = [7350, 7943]"] ;
1 -> 2 ;
3 [label="gini = 0.449\nsamples = 19561\nvalue = [6656, 12905]"] ;
1 -> 3 ;
4 [label="Short/Long Name <= 0.5\ngini = 0.262\nsamples = 40257\nvalue = [34003, 6254]"] ;
0 -> 4 [labeldistance=2.5, labelangle=-45, headlabel="False"] ;
5 [label="gini = 0.227\nsamples = 21436\nvalue = [18641, 2795]"] ;
4 -> 5 ;
6 [label="gini = 0.3\nsamples = 18821\nvalue = [15362, 3459]"] ;
4 -> 6 ;
}